
\data\
ngram 1=20
ngram 2=25

\1-grams:
-0.7781513	.	-0.8293039
-0.9822713	</s>
-99	<s>	-0.6651117
-1.681241	?	-0.2532572
-0.90309	ate	-0.7659168
-1.380211	ball	-0.4586378
-1.681241	do	-0.2918866
-0.8361432	he	-0.8346326
-1.681241	her	-0.2918866
-1.681241	is	-0.2918866
-0.90309	rice	-0.7871061
-1.681241	she	-0.2825466
-1.380211	the	-0.4586379
-1.681241	think	-0.2918866
-1.681241	threw	-0.2218487
-1.681241	thrown	-0.2918866
-1.681241	to	-0.2918866
-1.681241	was	-0.2218487
-1.681241	who	-0.2918866
-1.681241	you	-0.2325726

\2-grams:
-0.3521825	. </s>
-0.3521825	. he
-0.7781513	<s> do
-0.4771213	<s> he
-0.7781513	<s> she
-0.7781513	<s> the
-0.30103	? </s>
-0.06694679	ate .
-0.4771213	ball her
-0.4771213	ball threw
-0.30103	do you
-0.1249387	he rice
-0.90309	he who
-0.30103	her to
-0.30103	is think
-0.06694679	rice ate
-0.30103	she the
-0.1760913	the ball
-0.30103	think ?
-0.30103	threw .
-0.30103	thrown was
-0.30103	to thrown
-0.30103	was .
-0.30103	who is
-0.30103	you he

\end\
